{
  "type": "NeuralNetwork",
  "sizes": [
    126,
    8,
    8,
    7
  ],
  "layers": [
    {
      "weights": [],
      "biases": []
    },
    {
      "weights": [
        [
          0.16295115649700165,
          0.011316216550767422,
          0.06983202695846558,
          -0.01726667955517769,
          0.07740532606840134,
          -0.13234162330627441,
          -0.07354454696178436,
          -0.13758838176727295,
          0.12537625432014465,
          -0.09324398636817932,
          0.12984372675418854,
          -0.07894273847341537,
          -0.05402841418981552,
          0.1898476481437683,
          0.013335565105080605,
          0.12078467011451721,
          0.13069556653499603,
          -0.03775060549378395,
          -0.13495083153247833,
          0.09715189784765244,
          0.16880445182323456,
          -0.1943952888250351,
          -0.0791659951210022,
          0.04480524733662605,
          -0.0768018290400505,
          0.014761471189558506,
          0.16818872094154358,
          -0.04883966222405434,
          -0.002095701638609171,
          -0.06801989674568176,
          -0.06170322746038437,
          -0.10736464709043503,
          -0.15326301753520966,
          0.024653956294059753,
          -0.14965663850307465,
          -0.08182673156261444,
          -0.012162397615611553,
          -0.08868151903152466,
          -0.12975755333900452,
          -0.022241417318582535,
          -0.1898478865623474,
          -0.007546297274529934,
          0.054578106850385666,
          0.13930164277553558,
          0.11464089155197144,
          0.14778506755828857,
          -0.06717002391815186,
          0.1357194185256958,
          -0.0708761140704155,
          0.14779072999954224,
          0.18632137775421143,
          -0.0457233302295208,
          -0.025417808443307877,
          -0.1475515365600586,
          0.16819794476032257,
          -0.014199783094227314,
          0.10896364599466324,
          -0.030402259901165962,
          0.09246916323900223,
          -0.09963901340961456,
          -0.19797348976135254,
          0.10724343359470367,
          0.0010718917474150658,
          0.18318165838718414,
          -0.1699940264225006,
          -0.12894608080387115,
          -0.04861071705818176,
          0.0739554837346077,
          0.12353634834289551,
          -0.08065079152584076,
          0.0022866784129291773,
          0.06298349052667618,
          0.016640454530715942,
          -0.09440714865922928,
          -0.009453834034502506,
          -0.09187470376491547,
          -0.08158610761165619,
          0.022614775225520134,
          -0.18654155731201172,
          0.16422845423221588,
          0.17779599130153656,
          -0.041455719619989395,
          -0.12818700075149536,
          -0.17051012814044952,
          -0.06237766891717911,
          0.1937331110239029,
          -0.17171666026115417,
          0.12004965543746948,
          0.06674868613481522,
          -0.06550716608762741,
          0.10004011541604996,
          0.1737208366394043,
          -0.07342202961444855,
          -0.11055361479520798,
          -0.1317541003227234,
          -0.05322117730975151,
          0.04362115263938904,
          -0.16439604759216309,
          0.13420845568180084,
          -0.19005057215690613,
          -0.11676493287086487,
          -0.13651752471923828,
          -0.18720880150794983,
          0.13993386924266815,
          0.06726253032684326,
          -0.09137766808271408,
          -0.08958727866411209,
          0.1236349493265152,
          -0.18605974316596985,
          -0.08797476440668106,
          0.05922919139266014,
          0.04054238647222519,
          -0.1842576414346695,
          -0.17681686580181122,
          0.13816849887371063,
          -0.11799288541078568,
          0.03345668315887451,
          0.004855552222579718,
          -0.19096364080905914,
          0.1533857136964798,
          0.1252194344997406,
          -0.17353194952011108,
          0.10070548206567764,
          0.11112149059772491,
          0.18695630133152008,
          0.05590476468205452
        ],
        [
          0.18990586698055267,
          0.06357441842556,
          -0.11635185033082962,
          -0.030491139739751816,
          -0.11827688664197922,
          0.20114731788635254,
          -0.03832250088453293,
          -0.014038465917110443,
          -0.06150642782449722,
          0.07485990226268768,
          -0.10912562906742096,
          -0.14290452003479004,
          -0.09737143665552139,
          0.10517643392086029,
          0.1324194073677063,
          0.01789398491382599,
          -0.14601629972457886,
          -0.11955171823501587,
          0.3701532781124115,
          -0.5122304558753967,
          0.1187208965420723,
          0.08927208185195923,
          0.012691497802734375,
          0.24270401895046234,
          0.060914307832717896,
          0.09431201964616776,
          0.051788654178380966,
          -0.18758495151996613,
          0.11111399531364441,
          -0.06784160435199738,
          0.09979109466075897,
          0.04948621243238449,
          -0.15892504155635834,
          -0.06665071099996567,
          0.1382542997598648,
          0.12009308487176895,
          -0.5803731083869934,
          0.43431800603866577,
          -0.12790267169475555,
          0.18901242315769196,
          -0.11728720366954803,
          -0.07115533947944641,
          -0.10505151003599167,
          -0.04893700033426285,
          -0.17715759575366974,
          0.061669886112213135,
          -0.012077001854777336,
          -0.027160707861185074,
          -0.024195313453674316,
          -0.1955878734588623,
          0.07232023030519485,
          -0.19105686247348785,
          -0.10668832808732986,
          -0.18955449759960175,
          0.0281098410487175,
          -0.03661801666021347,
          -0.042764779180288315,
          -0.052309226244688034,
          -0.014001213945448399,
          0.39098048210144043,
          0.16807909309864044,
          0.0632367804646492,
          0.08506374061107635,
          -0.2004198580980301,
          0.050730880349874496,
          -0.0502137690782547,
          -0.16525733470916748,
          -0.18242600560188293,
          0.02229171432554722,
          -0.12299438565969467,
          -0.014899647794663906,
          0.03080328181385994,
          0.08735911548137665,
          -0.08567757159471512,
          -0.218626007437706,
          -0.05900488421320915,
          0.0974857285618782,
          -0.21315966546535492,
          0.14734086394309998,
          -0.005343886092305183,
          0.04114697128534317,
          -0.03129807859659195,
          -0.16752557456493378,
          0.09268052130937576,
          -0.04792790114879608,
          -0.053336162120103836,
          -0.12029451876878738,
          -0.05985405296087265,
          -0.03968847915530205,
          -0.013132167048752308,
          -0.17380061745643616,
          0.15028293430805206,
          0.1093190535902977,
          -0.20814548432826996,
          -0.05762772634625435,
          0.12309401482343674,
          0.01695568859577179,
          -0.0008916771039366722,
          0.019670935347676277,
          0.09051580727100372,
          -0.10182778537273407,
          0.11597367376089096,
          -0.06888079643249512,
          -0.0419626347720623,
          -0.11910609155893326,
          0.01660005748271942,
          0.0022071872372180223,
          0.06976983696222305,
          0.010820158757269382,
          -0.05558410659432411,
          0.2487545609474182,
          -0.08417827636003494,
          -0.17160016298294067,
          0.09872320294380188,
          -0.19200997054576874,
          0.13181881606578827,
          0.11893647164106369,
          -0.1315702348947525,
          0.024416303262114525,
          0.18459421396255493,
          -0.10797159373760223,
          0.015249642543494701,
          -0.19538313150405884,
          -0.18200910091400146,
          0.1764085739850998,
          0.08333670347929001
        ],
        [
          -1.149087905883789,
          0.08737622201442719,
          -0.04381730780005455,
          -0.8139688372612,
          -0.07453689724206924,
          -0.1778588891029358,
          -0.9659545421600342,
          0.01080172136425972,
          -0.12127606570720673,
          -0.5952950119972229,
          -0.18818193674087524,
          -0.02512933872640133,
          -0.9223119020462036,
          0.1216406598687172,
          -0.09930168837308884,
          -0.7124167084693909,
          -0.16362714767456055,
          -0.11772920936346054,
          -0.824137270450592,
          0.06554637849330902,
          -0.30391058325767517,
          0.05690118670463562,
          0.0857221782207489,
          -0.7237879037857056,
          -0.8825769424438477,
          0.05186491087079048,
          0.03203466162085533,
          -0.8488577604293823,
          0.02940201200544834,
          -0.14639030396938324,
          -0.8080745935440063,
          -0.19933512806892395,
          0.09758652746677399,
          -0.7923700213432312,
          0.048810023814439774,
          0.11526237428188324,
          -0.133513942360878,
          0.30310776829719543,
          -1.0454553365707397,
          -0.17053136229515076,
          -1.0329012870788574,
          0.4989904463291168,
          -0.06912217289209366,
          0.10289011895656586,
          -0.6847689151763916,
          -0.8583886027336121,
          -0.170282244682312,
          0.14449304342269897,
          -0.7825790047645569,
          -0.18979127705097198,
          -0.10943295061588287,
          -0.6512445211410522,
          -0.031671687960624695,
          -0.08029571175575256,
          0.032729655504226685,
          -0.8105016350746155,
          -0.16367098689079285,
          0.06364736706018448,
          -1.1177853345870972,
          0.15647876262664795,
          0.3241428732872009,
          -0.24981965124607086,
          -0.6434525847434998,
          -0.6821677088737488,
          -0.27542534470558167,
          0.20641198754310608,
          -0.7770741581916809,
          0.09573673456907272,
          0.12457358092069626,
          -0.9135498404502869,
          -0.033432647585868835,
          -0.0794975757598877,
          -0.8555043935775757,
          -0.33254313468933105,
          0.6608905792236328,
          -0.30948537588119507,
          -0.7113204002380371,
          0.2216014713048935,
          -0.04867386445403099,
          -0.8417688012123108,
          0.13856004178524017,
          -0.5795544385910034,
          -0.11146276444196701,
          -0.2747022211551666,
          -0.682066798210144,
          0.18110133707523346,
          0.11692800372838974,
          -0.9416520595550537,
          0.05733749642968178,
          -0.15860597789287567,
          0.059849727898836136,
          -0.12522749602794647,
          -0.5531440377235413,
          0.17225046455860138,
          0.1591881960630417,
          -0.8397423028945923,
          -0.7422761917114258,
          -0.10301889479160309,
          -0.026683427393436432,
          -0.7863996028900146,
          0.14716576039791107,
          0.05101165920495987,
          -0.6193714737892151,
          -0.1681382954120636,
          -0.06761304289102554,
          -0.885661780834198,
          -0.13692010939121246,
          -0.045641783624887466,
          -0.6336645483970642,
          0.12210622429847717,
          -0.3089138865470886,
          -0.7888947129249573,
          0.1409860998392105,
          -0.19638749957084656,
          -0.8379913568496704,
          0.10712874680757523,
          -0.2001500129699707,
          -0.8189127445220947,
          -0.10345204919576645,
          0.11101754009723663,
          -0.6927366256713867,
          -0.0011710160179063678,
          -0.1064077839255333,
          -0.9187549948692322,
          0.1389075666666031,
          -0.17371974885463715
        ],
        [
          -0.2269650101661682,
          -0.14874480664730072,
          0.05796235054731369,
          0.09042670577764511,
          -0.014337771572172642,
          0.040426112711429596,
          0.1653319001197815,
          -0.18265469372272491,
          0.06355487555265427,
          0.0671917274594307,
          0.13835833966732025,
          -0.17731092870235443,
          0.0345180444419384,
          0.1266794353723526,
          -0.024672124534845352,
          0.0935421958565712,
          -0.14896252751350403,
          -0.14856186509132385,
          -0.1320277452468872,
          -0.11581684648990631,
          -0.1488754153251648,
          0.051339805126190186,
          0.18550698459148407,
          -0.17446735501289368,
          -0.18686386942863464,
          -0.039583396166563034,
          0.13971322774887085,
          -0.03832775726914406,
          0.06592728942632675,
          0.11435169726610184,
          0.0810297504067421,
          0.08629683405160904,
          -0.15551041066646576,
          0.13121959567070007,
          -0.009885809384286404,
          -0.12068898230791092,
          0.12160474807024002,
          -0.06579791754484177,
          0.0467030331492424,
          -0.07938685268163681,
          -0.10310296714305878,
          -0.17914004623889923,
          0.08335373550653458,
          0.17381010949611664,
          0.10399298369884491,
          -0.20728185772895813,
          0.11892051994800568,
          -0.01567646488547325,
          -0.15552444756031036,
          0.036369841545820236,
          0.10818063467741013,
          0.05142299085855484,
          0.06339067965745926,
          -0.12728366255760193,
          -0.07166577130556107,
          -0.20471541583538055,
          0.17125001549720764,
          0.05628112703561783,
          -0.07131486386060715,
          0.041940540075302124,
          0.12852326035499573,
          -0.06850834935903549,
          0.01595383509993553,
          -0.14352230727672577,
          -0.11947239935398102,
          0.015195941552519798,
          0.1644650101661682,
          -0.08796326071023941,
          -0.15937912464141846,
          0.10602539032697678,
          -0.0892656072974205,
          -0.07898231595754623,
          -0.16953574120998383,
          -0.055112458765506744,
          -0.12930861115455627,
          -0.08494281023740768,
          0.05828411504626274,
          0.02240629307925701,
          0.0898054763674736,
          -0.030112162232398987,
          -0.07338247448205948,
          0.05054670572280884,
          -0.13534314930438995,
          -0.19083596765995026,
          -0.059566617012023926,
          0.04258408397436142,
          -0.13226062059402466,
          -0.008348430506885052,
          0.10295283049345016,
          0.04552287235856056,
          -0.02406037598848343,
          -0.06384924054145813,
          -0.11240166425704956,
          -0.14334091544151306,
          -0.10202977061271667,
          -0.005366919096559286,
          0.12680912017822266,
          0.028245974332094193,
          0.17513425648212433,
          -0.1876148283481598,
          -0.0318765863776207,
          -0.014574718661606312,
          0.06250081211328506,
          -0.10565624386072159,
          -0.11071502417325974,
          -0.11826292425394058,
          -0.17717579007148743,
          -0.017861928790807724,
          0.10276655107736588,
          0.09884130954742432,
          -0.20817728340625763,
          0.03604692593216896,
          0.029754264280200005,
          -0.07058461010456085,
          -0.16781681776046753,
          0.00585055211558938,
          0.10437213629484177,
          0.03669983521103859,
          -0.08318747580051422,
          -0.07031718641519547,
          0.06785259395837784,
          -0.038039371371269226,
          0.11217809468507767,
          -0.11227542906999588,
          0.03676596283912659,
          0.16735726594924927
        ],
        [
          0.1343359649181366,
          0.014154747128486633,
          -0.09247991442680359,
          0.10554295778274536,
          0.02447657659649849,
          0.11303170025348663,
          -0.12433503568172455,
          -0.11480309069156647,
          -0.09905072301626205,
          -0.13806281983852386,
          -0.19247443974018097,
          -0.12646441161632538,
          -0.10862599313259125,
          0.014506429433822632,
          -0.07410461455583572,
          -0.16199873387813568,
          0.14062288403511047,
          0.1741078943014145,
          -0.10797835141420364,
          -0.029344910755753517,
          -0.060263026505708694,
          -0.21423262357711792,
          -0.06216324493288994,
          0.03037743829190731,
          -0.009658821858465672,
          0.14469791948795319,
          0.09988526999950409,
          0.052243784070014954,
          0.17129258811473846,
          -0.117344930768013,
          -0.10424390435218811,
          0.17514994740486145,
          -0.1537015587091446,
          0.15431977808475494,
          0.17749276757240295,
          -0.07791455835103989,
          -0.027858953922986984,
          0.18246355652809143,
          -0.2161506861448288,
          -0.11909320950508118,
          0.17070066928863525,
          0.040699366480112076,
          0.07994312047958374,
          0.13503092527389526,
          -0.12252061814069748,
          -0.006432222668081522,
          -0.13446471095085144,
          0.10056321322917938,
          0.013552210293710232,
          -0.022508472204208374,
          -0.04940612241625786,
          -0.21882326900959015,
          0.179136261343956,
          0.03356263041496277,
          -0.07833985239267349,
          -0.06398200243711472,
          0.025015389546751976,
          0.1060374453663826,
          0.16980713605880737,
          -0.11057770252227783,
          -0.022507887333631516,
          -0.16297827661037445,
          -0.09855470061302185,
          -0.00946867000311613,
          -0.1511533260345459,
          0.037904709577560425,
          0.1747761070728302,
          -0.18143384158611298,
          -0.010733646340668201,
          -0.005235391203314066,
          -0.14266744256019592,
          0.0003995503066107631,
          -0.18253928422927856,
          0.11476807296276093,
          -0.13229668140411377,
          0.16711246967315674,
          -0.07818417251110077,
          0.11476336419582367,
          0.09314663708209991,
          -0.14175616204738617,
          -0.11816273629665375,
          -0.11532971262931824,
          0.09267625212669373,
          -0.12164074182510376,
          -0.04720519483089447,
          -0.07730993628501892,
          -0.05291645601391792,
          0.13445964455604553,
          0.16995488107204437,
          -0.08564804494380951,
          0.05797630921006203,
          0.055612727999687195,
          0.15086063742637634,
          -0.05142226815223694,
          0.059319619089365005,
          0.16272801160812378,
          -0.1420823186635971,
          0.08140256255865097,
          -0.07086368650197983,
          0.14331994950771332,
          -0.16009050607681274,
          -0.041644737124443054,
          0.08006186783313751,
          0.19030115008354187,
          -0.08548696339130402,
          -0.2111140787601471,
          -0.006838073022663593,
          0.09003295004367828,
          0.08449535071849823,
          -0.02008732035756111,
          -0.037218209356069565,
          -0.038438282907009125,
          -0.04894225671887398,
          0.01857512630522251,
          -0.21905140578746796,
          0.023525143042206764,
          -0.028640465810894966,
          0.15245220065116882,
          -0.01771426387131214,
          0.19806243479251862,
          -0.17338544130325317,
          -0.16695880889892578,
          -0.11831773817539215,
          -0.2061375379562378,
          -0.12065696716308594,
          -0.03701813891530037
        ],
        [
          0.00603060144931078,
          -0.17299620807170868,
          0.04110322147607803,
          0.0576392263174057,
          0.11674118041992188,
          0.07740247994661331,
          -0.16968870162963867,
          -0.021598339080810547,
          0.14229489862918854,
          -0.07205064594745636,
          -0.1586521416902542,
          0.1547989696264267,
          0.013612051494419575,
          -0.12625573575496674,
          -0.06602941453456879,
          -0.21143198013305664,
          -0.03526271879673004,
          0.10131677240133286,
          -0.17239072918891907,
          -0.006760578136891127,
          0.1336580216884613,
          0.16818061470985413,
          0.041443344205617905,
          0.10264212638139725,
          0.003938831388950348,
          -0.019601810723543167,
          -0.1426432728767395,
          0.05717955529689789,
          -0.17876572906970978,
          0.08623020350933075,
          0.12067140638828278,
          0.18630971014499664,
          0.10684660822153091,
          0.14253370463848114,
          -0.03185513615608215,
          -0.07287321984767914,
          -0.1429118663072586,
          -0.2364702671766281,
          0.08945067971944809,
          0.060820214450359344,
          -0.0010607379954308271,
          0.17738164961338043,
          0.10239516198635101,
          -0.04856716841459274,
          -0.17965984344482422,
          -0.09381990879774094,
          -0.10378158837556839,
          -0.14200827479362488,
          0.054130807518959045,
          0.07008086144924164,
          0.08523663133382797,
          -0.16591309010982513,
          0.032807402312755585,
          -0.05093975365161896,
          -0.022433362901210785,
          -0.07740499824285507,
          0.06202888861298561,
          -0.021619124338030815,
          0.11289779841899872,
          0.15573032200336456,
          -0.19560466706752777,
          -0.10844758152961731,
          -0.1371908336877823,
          -0.19971220195293427,
          0.012684398330748081,
          -0.032292213290929794,
          -0.18250824511051178,
          0.1846768707036972,
          -0.10973282158374786,
          -0.18804778158664703,
          0.11558275669813156,
          0.0921390950679779,
          -0.1703149527311325,
          -0.14710047841072083,
          0.03921999782323837,
          -0.011061485856771469,
          -0.10475252568721771,
          -0.049734219908714294,
          -0.1423787921667099,
          0.13645808398723602,
          -0.161232128739357,
          -0.06963623315095901,
          -0.14309488236904144,
          -0.0045096357353031635,
          0.03641912713646889,
          -0.17711487412452698,
          -0.14290839433670044,
          -0.2217828929424286,
          0.06300418078899384,
          -0.014390525408089161,
          0.17261509597301483,
          0.09671453386545181,
          0.06212206184864044,
          0.02080339752137661,
          0.003368769306689501,
          -0.11930956691503525,
          -0.012423163279891014,
          0.020782433450222015,
          0.045867983251810074,
          0.08371876180171967,
          -0.1279003918170929,
          0.050602834671735764,
          -0.12570331990718842,
          -0.07654105871915817,
          -0.1642780303955078,
          0.10824137926101685,
          -0.13092857599258423,
          -0.16654959321022034,
          0.052229851484298706,
          -0.1854657679796219,
          0.04336250200867653,
          0.12528443336486816,
          -0.07181333750486374,
          -0.19558992981910706,
          -0.08594225347042084,
          0.048416852951049805,
          0.17272458970546722,
          -0.2061810940504074,
          -0.15955916047096252,
          0.1453276127576828,
          -0.0783974677324295,
          0.07055731117725372,
          0.036600030958652496,
          0.08006934821605682,
          0.05178561061620712,
          0.17649038136005402
        ],
        [
          -0.08298522233963013,
          -0.14994753897190094,
          -0.09043662250041962,
          -0.24997852742671967,
          0.10191233456134796,
          0.2725781500339508,
          -0.2555384337902069,
          -0.0644305869936943,
          0.06038741022348404,
          -0.1682845652103424,
          -0.15830308198928833,
          -0.07813710719347,
          -0.11573873460292816,
          -0.044877275824546814,
          0.044245459139347076,
          0.047020431607961655,
          -0.14871715009212494,
          0.12653766572475433,
          0.31599855422973633,
          -0.587900698184967,
          0.24840587377548218,
          -0.14360377192497253,
          -0.10297192633152008,
          -0.0009390626801177859,
          -0.09264539182186127,
          0.14251844584941864,
          -0.07510379701852798,
          -0.18235617876052856,
          0.013334921561181545,
          0.1262383908033371,
          -0.24891965091228485,
          -0.1724180281162262,
          -0.0372207947075367,
          -0.07919175922870636,
          0.013941071927547455,
          -0.1777065247297287,
          -0.6214255690574646,
          0.7652260065078735,
          -0.09581490606069565,
          0.2356957346200943,
          0.03690813109278679,
          -0.25670039653778076,
          0.07913248986005783,
          -0.11314678192138672,
          0.12593360245227814,
          -0.00827900879085064,
          0.17747153341770172,
          0.127522274851799,
          -0.24913866817951202,
          0.1516803801059723,
          0.16836482286453247,
          0.01157374121248722,
          -0.06681831181049347,
          -0.07932601869106293,
          0.10701382905244827,
          0.07726714760065079,
          0.16646748781204224,
          -0.24178452789783478,
          0.04262803867459297,
          0.21716755628585815,
          -0.19212672114372253,
          -0.11576798558235168,
          0.21022287011146545,
          -0.23395487666130066,
          0.08998573571443558,
          -0.08255749195814133,
          -0.24783208966255188,
          -0.06653976440429688,
          -0.11001405864953995,
          0.06332644075155258,
          -0.006242060102522373,
          0.028592638671398163,
          -0.08150549978017807,
          0.1825098842382431,
          -0.41933125257492065,
          0.05049611255526543,
          -0.1360035538673401,
          -0.1598978340625763,
          0.1417848765850067,
          -0.1774967908859253,
          -0.08898159861564636,
          -0.2956485152244568,
          0.07202832400798798,
          0.031328897923231125,
          0.02406592108309269,
          0.11729715019464493,
          0.0774078220129013,
          -0.2840415835380554,
          0.08950348198413849,
          0.014251286163926125,
          -0.2955276370048523,
          0.023194169625639915,
          -0.03773527219891548,
          0.025103650987148285,
          0.20089638233184814,
          -0.21557576954364777,
          -0.1900457888841629,
          -0.058396995067596436,
          -0.050331857055425644,
          0.06956320255994797,
          0.0076574888080358505,
          -0.142557755112648,
          -0.0032675773836672306,
          -0.1494137942790985,
          0.05161692202091217,
          -0.2306884527206421,
          -0.1213655173778534,
          0.01773250475525856,
          -0.48469579219818115,
          0.18044400215148926,
          0.036351706832647324,
          0.11586806923151016,
          -0.18687282502651215,
          -0.06523273885250092,
          0.00011383890523575246,
          -0.11321680247783661,
          -0.0021181791089475155,
          -0.2049560844898224,
          0.18894121050834656,
          0.023908481001853943,
          0.0660284087061882,
          0.12748759984970093,
          -0.1265101432800293,
          -0.04416155815124512,
          0.017000438645482063,
          0.1457747519016266
        ],
        [
          0.08163587003946304,
          0.11507795751094818,
          -0.08482670038938522,
          -0.0863947793841362,
          -0.024747971445322037,
          0.03372681885957718,
          -0.1971593201160431,
          0.07367563992738724,
          -0.09824219346046448,
          -0.15932205319404602,
          0.09610144793987274,
          -0.1530838906764984,
          0.12904800474643707,
          0.08403384685516357,
          0.024199338629841805,
          -0.11461274325847626,
          -0.17647014558315277,
          0.08900067955255508,
          -0.05565905198454857,
          0.11535114049911499,
          0.07015866041183472,
          -0.1657530516386032,
          0.1517898142337799,
          -0.03438986465334892,
          -0.07867215573787689,
          0.09365594387054443,
          -0.07145483046770096,
          -0.038019608706235886,
          0.12046752125024796,
          0.10492059588432312,
          0.07861915230751038,
          0.07344207167625427,
          0.166554257273674,
          0.10514020919799805,
          -0.0023228004574775696,
          -0.19745466113090515,
          0.03378951549530029,
          0.01305412221699953,
          0.09949500858783722,
          0.12573009729385376,
          -0.0731203481554985,
          0.0458681583404541,
          -0.14233118295669556,
          -0.02021089568734169,
          0.0909624844789505,
          0.066025011241436,
          -0.02105124294757843,
          0.1423608809709549,
          0.12658114731311798,
          -0.1577722579240799,
          0.09341728687286377,
          -0.06379230320453644,
          0.17128248512744904,
          0.19855667650699615,
          -0.13066866993904114,
          -0.12730561196804047,
          -0.053204040974378586,
          -0.0701674371957779,
          0.19171473383903503,
          0.09464321285486221,
          0.1613016426563263,
          -0.08274950832128525,
          0.04293922707438469,
          -0.05766617879271507,
          0.054734762758016586,
          -0.17848369479179382,
          -0.0809176042675972,
          0.16815894842147827,
          0.08614757657051086,
          0.06814935058355331,
          -0.029874207451939583,
          0.04170991852879524,
          -0.07559763640165329,
          0.08442594856023788,
          0.1496092677116394,
          -0.20227479934692383,
          -0.013239341787993908,
          -0.16911906003952026,
          0.17480845749378204,
          0.061255861073732376,
          -0.01443294808268547,
          -0.16571645438671112,
          0.12589813768863678,
          0.14805272221565247,
          0.020198112353682518,
          -0.11626628041267395,
          -0.06408911198377609,
          -0.07950665056705475,
          0.15705089271068573,
          -0.03542906045913696,
          -0.17869631946086884,
          -0.02472808212041855,
          -0.12546001374721527,
          0.08461607992649078,
          0.051763784140348434,
          0.006309185642749071,
          0.09359841793775558,
          -0.07417386025190353,
          0.0018676008330658078,
          0.002327532507479191,
          -0.16373634338378906,
          0.08690829575061798,
          -0.14344993233680725,
          -0.14937330782413483,
          -0.1784008890390396,
          -0.06591329723596573,
          0.05977063253521919,
          -0.12985263764858246,
          -0.04799468815326691,
          -0.03590187430381775,
          -0.14826984703540802,
          -0.06648615747690201,
          -0.0639491006731987,
          0.2009616494178772,
          -0.0049438769929111,
          0.031916096806526184,
          0.10101380944252014,
          0.055592793971300125,
          -0.1564176380634308,
          -0.13373972475528717,
          0.09361634403467178,
          -0.015136534348130226,
          -0.12794537842273712,
          -0.08642780780792236,
          0.11461399495601654,
          -0.14800426363945007
        ]
      ],
      "biases": [
        -0.1850961595773697,
        -0.16173066198825836,
        -0.5719870924949646,
        -0.029697861522436142,
        0.15508438646793365,
        0.08778275549411774,
        -0.26245781779289246,
        -0.1367477923631668
      ]
    },
    {
      "weights": [
        [
          -0.1416608989238739,
          -0.136805921792984,
          -6.676988124847412,
          0.0856507420539856,
          -0.11571403592824936,
          0.11268018186092377,
          -0.5109925866127014,
          0.09389632195234299
        ],
        [
          -0.12739059329032898,
          0.08457595109939575,
          -0.12048427015542984,
          -0.003408056451007724,
          -0.19281168282032013,
          -0.044885631650686264,
          -0.09551079571247101,
          0.1942121386528015
        ],
        [
          -0.045713651925325394,
          -0.1526530534029007,
          -0.02043924108147621,
          0.1776459962129593,
          0.13028369843959808,
          -0.09806393086910248,
          -0.08641367405653,
          0.14728230237960815
        ],
        [
          -0.002723708748817444,
          0.1132744625210762,
          0.003072642255574465,
          0.08358033001422882,
          0.19317208230495453,
          -0.031084448099136353,
          0.07478693127632141,
          -0.10640163719654083
        ],
        [
          0.08862296491861343,
          0.045039426535367966,
          -0.07856354862451553,
          0.04750646650791168,
          0.14060169458389282,
          -0.025099821388721466,
          -0.0867198184132576,
          -0.09971421211957932
        ],
        [
          0.10847669094800949,
          -0.11984220892190933,
          -0.04162285104393959,
          0.027554597705602646,
          0.007266780827194452,
          -0.04851844534277916,
          0.00856511015444994,
          -0.19371242821216583
        ],
        [
          -0.19611011445522308,
          0.03600090742111206,
          0.004525893833488226,
          0.14063413441181183,
          0.02238965407013893,
          -0.09214399755001068,
          0.1788509041070938,
          -0.05704773589968681
        ],
        [
          0.11844031512737274,
          -0.4143051207065582,
          -0.10759204626083374,
          -0.02924797683954239,
          0.0906432643532753,
          -0.05354785546660423,
          -0.4106222987174988,
          0.07251118123531342
        ]
      ],
      "biases": [
        -1.163807988166809,
        -0.16827590763568878,
        -0.14330251514911652,
        -0.1475147306919098,
        -0.14441680908203125,
        -0.19214987754821777,
        -0.32361769676208496,
        -0.06576360762119293
      ]
    },
    {
      "weights": [
        [
          -0.16473565995693207,
          -0.04765348508954048,
          0.07370342314243317,
          -0.15727266669273376,
          -0.021227847784757614,
          -0.15878717601299286,
          0.002984851598739624,
          0.14112500846385956
        ],
        [
          -3.734119415283203,
          0.134220689535141,
          -0.15294690430164337,
          0.0998769998550415,
          -0.1587354987859726,
          -0.0014795969473198056,
          -0.09112229943275452,
          0.031323499977588654
        ],
        [
          -0.7789232134819031,
          -0.05751489847898483,
          0.11575727164745331,
          -0.009358013048768044,
          -0.05447842925786972,
          -0.14407947659492493,
          0.06399296969175339,
          -0.28616926074028015
        ],
        [
          -0.33895471692085266,
          -0.09215356409549713,
          0.07746045291423798,
          -0.13151787221431732,
          -0.04916732385754585,
          -0.15393461287021637,
          0.12871481478214264,
          0.12252058833837509
        ],
        [
          -0.030930042266845703,
          -0.11865977942943573,
          -0.04952598735690117,
          0.09375252574682236,
          0.10036584734916687,
          -0.09635952860116959,
          0.13325417041778564,
          0.3303539454936981
        ],
        [
          -0.15746058523654938,
          -0.16220641136169434,
          -0.13803228735923767,
          0.1779903620481491,
          0.1962381899356842,
          0.10310310125350952,
          -0.1776340901851654,
          0.12522506713867188
        ],
        [
          0.004340354818850756,
          0.10219573974609375,
          -0.16571566462516785,
          0.010450411587953568,
          0.025170229375362396,
          0.09121610224246979,
          0.04556482285261154,
          -0.14589257538318634
        ]
      ],
      "biases": [
        -0.03299099579453468,
        -0.9718166589736938,
        0.36152341961860657,
        0.22263838350772858,
        -0.2279716581106186,
        -0.11339105665683746,
        -0.03831101581454277
      ]
    }
  ],
  "inputLookup": null,
  "inputLookupLength": 0,
  "outputLookup": null,
  "outputLookupLength": 0,
  "options": {
    "inputSize": 0,
    "outputSize": 0,
    "binaryThresh": 0.5,
    "hiddenLayers": [
      8,
      8
    ],
    "activation": "relu"
  },
  "trainOpts": {
    "activation": "relu",
    "iterations": 20000,
    "errorThresh": 0.005,
    "log": false,
    "logPeriod": 10,
    "leakyReluAlpha": 0.01,
    "learningRate": 0.3,
    "momentum": 0.1,
    "callbackPeriod": 10,
    "timeout": "Infinity",
    "beta1": 0.9,
    "beta2": 0.999,
    "epsilon": 1e-8
  }
}